digraph Tree {
node [shape=box] ;
0 [label="X[5] <= 6.945\nmse = 93.16\nsamples = 166\nvalue = 22.548"] ;
1 [label="X[12] <= 14.28\nmse = 45.58\nsamples = 143\nvalue = 19.838"] ;
0 -> 1 [labeldistance=2.5, labelangle=45, headlabel="True"] ;
3 [label="X[7] <= 1.422\nmse = 29.612\nsamples = 86\nvalue = 23.593"] ;
1 -> 3 ;
5 [label="X[11] <= 339.985\nmse = 108.536\nsamples = 3\nvalue = 42.633"] ;
3 -> 5 ;
13 [label="mse = 0.0\nsamples = 1\nvalue = 27.9"] ;
5 -> 13 ;
14 [label="mse = 0.0\nsamples = 2\nvalue = 50.0"] ;
5 -> 14 ;
6 [label="X[5] <= 6.543\nmse = 13.182\nsamples = 83\nvalue = 22.905"] ;
3 -> 6 ;
11 [label="mse = 6.327\nsamples = 66\nvalue = 21.745"] ;
6 -> 11 ;
12 [label="mse = 14.318\nsamples = 17\nvalue = 27.406"] ;
6 -> 12 ;
4 [label="X[0] <= 7.084\nmse = 16.315\nsamples = 57\nvalue = 14.174"] ;
1 -> 4 ;
9 [label="mse = 5.764\nsamples = 32\nvalue = 16.828"] ;
4 -> 9 ;
10 [label="mse = 9.257\nsamples = 25\nvalue = 10.776"] ;
4 -> 10 ;
2 [label="X[5] <= 7.445\nmse = 59.641\nsamples = 23\nvalue = 39.391"] ;
0 -> 2 [labeldistance=2.5, labelangle=-45, headlabel="False"] ;
7 [label="mse = 26.47\nsamples = 13\nvalue = 34.262"] ;
2 -> 7 ;
8 [label="mse = 24.082\nsamples = 10\nvalue = 46.06"] ;
2 -> 8 ;
}